<NeuralNetwork>
    <Inputs>
        <InputsNumber>2</InputsNumber>
        <Item Index="1">
            <Name>X</Name>
            <Units></Units>
            <Description></Description>
        </Item>
        <Item Index="2">
            <Name>Y</Name>
            <Units></Units>
            <Description></Description>
        </Item>
    </Inputs>
    <MultilayerPerceptron>
        <Architecture>2 20 6</Architecture>
        <LayersActivationFunction>HyperbolicTangent Linear</LayersActivationFunction>
        <Parameters>0.90852 -0.531375 -0.531065 -0.429998 -0.586021 0.117674 -0.69752 -1.32468 -0.788393 0.164192 0.84129 0.901305 0.789083 -0.238996 -0.614655 -0.327485 -0.163074 -1.73674 -0.116825 0.49087 1.07826 0.983736 -2.16505 -0.514161 0.602717 -0.278834 0.281104 0.361588 -1.2423 -0.877267 -0.635721 -0.773013 0.562925 -1.34564 1.78454 0.104341 -0.764861 -0.554366 -0.375199 -0.672766 -2.36116 -1.3284 -1.1793 1.39724 -1.35658 -2.63624 -1.59887 -1.25611 0.255498 -1.1648 -0.921221 0.754067 -1.45729 0.585931 0.134217 0.172598 -0.657986 -0.689053 -0.891789 0.81266 -0.963839 0.972217 1.55548 0.0173134 -2.14907 -0.304155 -1.23485 0.821217 -0.100305 0.0217318 -0.280924 0.667431 0.538261 -1.44389 -0.226195 -1.04254 0.369703 -0.289449 -0.418202 0.500588 -1.47097 0.246109 0.801119 0.556576 -0.0635091 1.31192 -1.73062 3.41783 0.64219 -0.335213 1.86066 -0.92348 -0.243314 -0.436501 -0.137891 -1.22238 -0.667842 0.685132 -0.0370564 -0.0526481 1.31059 0.527822 -0.959142 0.493245 1.57895 -0.375891 -1.23301 -0.540407 -0.148092 -0.730362 0.418336 -0.167652 0.966271 0.551558 0.101567 -1.69054 -1.63885 0.465337 -1.52405 -0.849045 -0.817851 -0.155676 0.233218 -0.0522926 -0.20146 -0.482135 1.0491 1.02712 1.444 0.896411 1.44884 0.466803 -1.44976 0.362479 -0.0675863 -0.0384175 1.05614 0.0317853 -1.08694 -1.86337 1.18097 -1.3908 -0.919699 0.216727 0.0866171 -0.577573 0.0111312 0.789156 0.552562 -0.22278 0.442892 -1.53825 -0.0993307 0.238178 -1.3691 0.286766 -1.47459 -0.270853 -0.405883 0.856504 -1.39046 -0.370731 -0.588187 -0.120642 0.793545 1.26986 -1.40834 0.460952 1.4235 -0.513317 -1.55633 1.77379 -2.43509 -0.127899 0.315395 -0.396659 -0.255053 -0.651245 -0.854899 -1.37001 -1.66286 -1.03043 -0.199679 -1.46758 -0.810219 0.216258</Parameters>
    </MultilayerPerceptron>
    <Outputs>
        <OutputsNumber>6</OutputsNumber>
        <Item Index="1">
            <Name>AND</Name>
            <Units></Units>
            <Description></Description>
        </Item>
        <Item Index="2">
            <Name>OR</Name>
            <Units></Units>
            <Description></Description>
        </Item>
        <Item Index="3">
            <Name>NAND</Name>
            <Units></Units>
            <Description></Description>
        </Item>
        <Item Index="4">
            <Name>NOR</Name>
            <Units></Units>
            <Description></Description>
        </Item>
        <Item Index="5">
            <Name>XNOR</Name>
            <Units></Units>
            <Description></Description>
        </Item>
        <Item Index="6">
            <Name>XNOR</Name>
            <Units></Units>
            <Description></Description>
        </Item>
    </Outputs>
</NeuralNetwork>
