<NeuralNetwork>
    <Inputs>
        <InputsNumber>2</InputsNumber>
        <Item Index="1">
            <Name>X</Name>
            <Units></Units>
            <Description></Description>
        </Item>
        <Item Index="2">
            <Name>Y</Name>
            <Units></Units>
            <Description></Description>
        </Item>
    </Inputs>
    <MultilayerPerceptron>
        <Architecture>2 20 6</Architecture>
        <LayersActivationFunction>HyperbolicTangent Linear</LayersActivationFunction>
        <Parameters>-1.4927 0.0343816 1.30661 -0.367167 1.23522 1.75002 0.22587 0.355128 0.183168 -0.325832 -0.301191 0.0105631 0.58818 1.0679 -0.571984 -0.335054 -0.893466 -1.15438 1.14379 -0.312603 -0.0580852 -2.09308 -1.27372 0.627205 -0.812526 -0.970514 -0.871144 0.875525 -0.282572 -0.00872747 -1.03387 -1.09054 0.511899 -0.787791 -0.56871 -0.0293303 0.203221 -0.132696 -0.776215 -0.661387 -0.525719 -0.468406 -0.939728 -0.0533365 -1.41738 1.90946 -0.373673 1.79117 1.46326 -1.1741 2.54123 0.714201 -1.01434 1.32823 1.53876 0.438183 0.896815 -0.61 -1.32951 -0.377709 1.61484 0.311836 0.782402 -0.291364 1.37502 0.652136 1.18697 -2.19653 0.144466 -0.701449 -0.745552 -2.00529 0.593722 0.482813 -0.858848 -0.242684 0.751332 -0.975982 1.57409 -1.15974 0.410292 -0.589942 1.27086 -0.194162 0.292902 0.00955798 -0.0471561 -0.343085 -0.0814172 2.35639 -0.332781 0.755784 0.321561 -1.38813 0.709507 -1.40736 -1.69732 0.375292 0.251524 -1.22004 1.15239 1.17013 1.14257 -0.852415 0.421169 -1.23888 0.500835 0.0852335 0.859324 -1.36316 -0.303288 -1.26398 1.28935 1.02251 0.801636 -0.797992 0.620608 0.735067 0.883205 -0.940935 -0.103428 1.71795 0.296986 0.980937 0.707015 0.185953 -0.861885 1.74768 0.840779 0.329462 1.42435 0.744853 0.886891 0.199706 -0.714812 -0.085369 0.781243 -0.356794 -0.19388 -0.331873 1.10385 -0.47695 -0.246047 0.240957 0.910251 0.0423358 0.802113 0.556993 -0.572533 -0.439347 -1.29997 0.871458 -0.0472085 -0.671928 0.589559 1.52533 0.0361081 1.735 0.43519 0.796729 -1.03035 -0.0118752 -0.13597 0.289508 0.35226 1.15466 -0.234189 0.200192 0.336988 0.471992 2.42344 1.10922 -1.24496 0.421262 0.0361205 0.227411 1.8173 -0.883143 0.265036 0.282509 -0.0591443 0.884082 0.691199 1.01996 -1.17945 -0.0409559</Parameters>
    </MultilayerPerceptron>
    <Outputs>
        <OutputsNumber>6</OutputsNumber>
        <Item Index="1">
            <Name>AND</Name>
            <Units></Units>
            <Description></Description>
        </Item>
        <Item Index="2">
            <Name>OR</Name>
            <Units></Units>
            <Description></Description>
        </Item>
        <Item Index="3">
            <Name>NAND</Name>
            <Units></Units>
            <Description></Description>
        </Item>
        <Item Index="4">
            <Name>NOR</Name>
            <Units></Units>
            <Description></Description>
        </Item>
        <Item Index="5">
            <Name>XNOR</Name>
            <Units></Units>
            <Description></Description>
        </Item>
        <Item Index="6">
            <Name>XNOR</Name>
            <Units></Units>
            <Description></Description>
        </Item>
    </Outputs>
</NeuralNetwork>
