<NeuralNetwork>
    <Inputs>
        <InputsNumber>2</InputsNumber>
        <Item Index="1">
            <Name>X</Name>
            <Units></Units>
            <Description></Description>
        </Item>
        <Item Index="2">
            <Name>Y</Name>
            <Units></Units>
            <Description></Description>
        </Item>
    </Inputs>
    <MultilayerPerceptron>
        <Architecture>2 20 6</Architecture>
        <LayersActivationFunction>HyperbolicTangent Linear</LayersActivationFunction>
        <Parameters>0.0335169 0.561977 -0.974015 0.643962 -0.737949 -0.137525 -0.044699 -0.535859 -1.41489 0.462511 1.14575 1.29877 0.672586 -0.0350921 -2.46132 -0.481958 -0.239078 0.959274 -1.42301 0.425054 0.884942 0.914704 0.645468 2.35441 -0.857915 0.328686 0.270852 -1.78053 0.288172 -2.84789 0.103792 0.380147 1.33241 -0.838355 1.26672 -1.73313 0.255658 0.844619 1.81226 0.0911415 0.0687731 0.176716 -0.676601 -0.578788 0.42211 0.0174764 0.272305 -0.0681395 -1.35019 -1.23198 1.66399 0.351717 0.634223 -1.36536 -0.114745 0.653565 1.25937 1.0775 0.0526472 0.566783 -0.941265 0.310687 -0.0401672 1.4477 2.41406 -1.17746 -0.897263 1.12486 0.343675 1.23214 -0.903098 -0.564902 -0.0229821 -1.88581 -0.340082 0.0680608 -0.578524 -0.0980522 0.0581059 0.15226 1.92863 0.596711 -0.821662 1.05289 -0.326115 1.76129 -0.887797 -0.524585 -0.140722 -2.24161 0.392181 -0.0381041 0.84059 0.426911 1.3272 1.6279 1.05425 -0.0692889 -0.573512 1.33132 -0.93225 -0.799465 0.629807 -0.731137 0.254251 -1.66693 -0.673952 -0.99112 -0.547678 -0.44292 1.26874 -0.402994 -0.377876 -0.185599 1.31467 -0.650621 -0.447262 -1.97452 -0.671124 0.936294 0.00731095 -2.19716 -0.769547 1.44972 0.637134 0.0852523 0.017337 -0.649873 0.649147 0.954593 0.192513 0.985383 0.669608 0.925547 0.144488 -0.40775 -0.28366 -0.700661 0.909698 -1.37694 -0.643175 -0.000687902 -0.0594422 0.554225 -0.0352505 -0.131016 -0.696467 -0.782432 0.342878 1.51491 1.58696 -1.02531 1.41733 -0.284816 0.00948098 -1.40544 1.33285 -1.20718 0.562991 1.72874 1.49369 -0.0326713 -1.53674 1.02547 1.08087 -1.05601 -0.884612 -0.172945 -0.0141855 -0.293048 -0.473873 -0.0484031 -0.447139 0.984788 0.411569 0.284121 -0.883816 -0.494186 1.20885 0.218166 0.562939 -0.106386 -1.69605 -0.00637622 -1.05664 0.218842</Parameters>
    </MultilayerPerceptron>
    <Outputs>
        <OutputsNumber>6</OutputsNumber>
        <Item Index="1">
            <Name>AND</Name>
            <Units></Units>
            <Description></Description>
        </Item>
        <Item Index="2">
            <Name>OR</Name>
            <Units></Units>
            <Description></Description>
        </Item>
        <Item Index="3">
            <Name>NAND</Name>
            <Units></Units>
            <Description></Description>
        </Item>
        <Item Index="4">
            <Name>NOR</Name>
            <Units></Units>
            <Description></Description>
        </Item>
        <Item Index="5">
            <Name>XNOR</Name>
            <Units></Units>
            <Description></Description>
        </Item>
        <Item Index="6">
            <Name>XNOR</Name>
            <Units></Units>
            <Description></Description>
        </Item>
    </Outputs>
</NeuralNetwork>
